{"arch": "{\"class_name\": \"Sequential\", \"keras_version\": \"2.0.8\", \"config\": [{\"class_name\": \"LSTM\", \"config\": {\"recurrent_activation\": \"hard_sigmoid\", \"dtype\": \"float32\", \"trainable\": true, \"recurrent_initializer\": {\"class_name\": \"Orthogonal\", \"config\": {\"seed\": null, \"gain\": 1.0}}, \"use_bias\": true, \"bias_regularizer\": null, \"return_state\": false, \"unroll\": false, \"activation\": \"tanh\", \"bias_initializer\": {\"class_name\": \"Zeros\", \"config\": {}}, \"units\": 20, \"batch_input_shape\": [null, 100, 1], \"activity_regularizer\": null, \"recurrent_dropout\": 0.0, \"kernel_initializer\": {\"class_name\": \"VarianceScaling\", \"config\": {\"distribution\": \"uniform\", \"scale\": 1.0, \"seed\": null, \"mode\": \"fan_avg\"}}, \"kernel_constraint\": null, \"dropout\": 0.0, \"stateful\": false, \"unit_forget_bias\": true, \"recurrent_regularizer\": null, \"name\": \"lstm_20\", \"bias_constraint\": null, \"go_backwards\": false, \"implementation\": 0, \"kernel_regularizer\": null, \"return_sequences\": false, \"recurrent_constraint\": null}}, {\"class_name\": \"Dense\", \"config\": {\"kernel_initializer\": {\"class_name\": \"VarianceScaling\", \"config\": {\"distribution\": \"uniform\", \"scale\": 1.0, \"seed\": null, \"mode\": \"fan_avg\"}}, \"name\": \"dense_17\", \"kernel_constraint\": null, \"bias_regularizer\": null, \"bias_constraint\": null, \"activation\": \"sigmoid\", \"trainable\": true, \"kernel_regularizer\": null, \"bias_initializer\": {\"class_name\": \"Zeros\", \"config\": {}}, \"units\": 3, \"use_bias\": true, \"activity_regularizer\": null}}], \"backend\": \"tensorflow\"}", "weight": [[[0.2376852035522461, 0.22917072474956512, 0.38534310460090637, -0.12457241117954254, -0.032089002430438995, 0.3139351010322571, 0.3477562963962555, 0.16589199006557465, -0.15580344200134277, -0.11688903719186783, -0.10945377498865128, -0.08818227797746658, 0.18713204562664032, 0.2266746610403061, 0.16345585882663727, 0.0699789822101593, -0.3686234652996063, 0.2901332378387451, 0.14726446568965912, -0.013811929151415825, 0.033911824226379395, -0.1683586835861206, 0.03604597598314285, 0.3443204164505005, 0.004702678881585598, 0.597922682762146, 0.13847942650318146, 0.01765759289264679, -0.39872992038726807, 0.050971366465091705, -0.13716115057468414, 0.05251418799161911, -0.18120449781417847, -0.0106281703338027, 0.18115080893039703, 0.03633773326873779, -0.4406265914440155, 0.03334064036607742, -0.022210970520973206, 0.003980122972279787, 0.19480833411216736, 0.18977732956409454, -0.2774456739425659, 0.020506862550973892, 0.058185502886772156, -0.21270851790905, -0.09765417873859406, -0.06797680258750916, 0.34490203857421875, 0.2801418602466583, 0.12073414027690887, -0.530926525592804, 0.0520908460021019, -0.019360549747943878, -0.29067179560661316, -0.08319322019815445, 0.3174456059932709, 0.29895347356796265, -0.12207277119159698, -0.013449007645249367, 0.026799984276294708, 0.15154863893985748, -0.10796113312244415, 0.2496568262577057, -0.2254694551229477, -0.09418916702270508, 0.05339176952838898, 0.09099648892879486, 0.2680715322494507, 0.06948818266391754, 0.4909452795982361, 0.18531014025211334, 0.030759969726204872, 0.17280344665050507, 0.22371149063110352, 0.10382766276597977, -0.3031291961669922, -0.38044795393943787, 0.14972198009490967, 0.06495644897222519]], [[0.051825106143951416, 0.033527255058288574, -0.03801100701093674, 0.1873510181903839, 0.22227291762828827, 0.30735114216804504, 0.05907038599252701, -0.26995036005973816, 0.11625810712575912, 0.18196411430835724, -0.034852128475904465, 0.0747535228729248, 0.2614220678806305, -0.20414458215236664, 0.3275420665740967, -0.22916340827941895, 0.07125469297170639, 0.2930346131324768, -0.013250259682536125, 0.22505730390548706, -0.08075733482837677, 0.0756874531507492, 0.4408170282840729, 0.06012512743473053, 0.18024368584156036, 0.11207379400730133, 0.22892878949642181, 0.33239901065826416, 0.08751467615365982, 0.04623405635356903, 0.11945651471614838, 0.18853574991226196, 0.12708519399166107, 0.03369581326842308, 0.012038249522447586, 0.029390262439846992, 0.1749531477689743, 0.21585670113563538, 0.3742120862007141, 0.22752267122268677, 0.13616520166397095, -0.10595744103193283, 0.12597206234931946, -0.22892752289772034, 0.30692583322525024, 0.13103292882442474, -0.0048461370170116425, -0.2753238379955292, -0.12477815896272659, -0.024573471397161484, 0.12193726748228073, 0.09323959797620773, -0.10343080759048462, -0.16167952120304108, -0.04427167773246765, 0.11677423119544983, -0.3067147135734558, 0.22707585990428925, -0.2568725347518921, 0.35070401430130005, 0.23206882178783417, 0.11536718904972076, 0.22518806159496307, 0.04360593855381012, 0.08172392845153809, 0.21738500893115997, 0.1006079837679863, 0.32937532663345337, 0.37443140149116516, 0.051695048809051514, 0.12834683060646057, 0.6752187013626099, 0.45534995198249817, 0.1889570951461792, 0.34175288677215576, 0.2508426010608673, 0.22185665369033813, -0.013659726828336716, 0.23779165744781494, 0.2834785282611847], [-0.0777323916554451, 0.01095191203057766, -0.21838465332984924, 0.038642775267362595, 0.30725210905075073, -0.17471282184123993, 0.03588179498910904, -0.1985297054052353, 0.2134665846824646, -0.04757913202047348, 0.12234508246183395, -0.12082488089799881, 0.12886077165603638, -0.23933158814907074, 0.07367971539497375, -0.1017526239156723, -0.05271298810839653, -0.14778953790664673, 0.15191449224948883, -0.2061229944229126, 0.06617330014705658, 0.17325687408447266, 0.2792696952819824, 0.042191654443740845, 0.13994276523590088, 0.03646903112530708, 0.1673787236213684, 0.17610616981983185, -0.04367801547050476, 0.052294328808784485, 0.1463697999715805, 0.2922218143939972, 0.0065809693187475204, 0.15169715881347656, -0.03800299018621445, 0.2787363529205322, -0.17791502177715302, 0.05302973836660385, 0.08077757060527802, 0.01952236145734787, -0.03141198679804802, 0.22653324902057648, -0.19729407131671906, 0.09822597354650497, -0.0799560546875, 0.0520629845559597, -0.14942330121994019, 0.10452308505773544, 0.03228207677602768, -0.35023775696754456, 0.18447767198085785, 0.1641049087047577, -0.15060262382030487, -0.016622893512248993, 0.09948636591434479, -0.0851469486951828, 0.09391194581985474, -0.09138026088476181, -0.09424500912427902, 0.1368628889322281, 0.027247780933976173, -0.0307990200817585, 0.10978924483060837, 0.07567849010229111, -0.15002700686454773, -0.06728436797857285, 0.05676672235131264, 0.1567167490720749, -0.1750672310590744, -0.10899325460195541, 0.016725832596421242, 0.18737028539180756, -0.07357325404882431, -0.0808526948094368, -0.03834183141589165, 0.1923515796661377, -0.20046637952327728, -0.19538551568984985, 0.005390969105064869, -0.03490408509969711], [-0.06052928790450096, 0.012761109508574009, 0.2701554000377655, -0.009873716160655022, -0.10947590321302414, 0.25612562894821167, -0.25976383686065674, 0.17151446640491486, -0.1523967683315277, -0.18904666602611542, -0.07920572906732559, 0.09580186754465103, -0.14096404612064362, 0.05715753883123398, -0.10031688958406448, 0.1959511637687683, 0.039300739765167236, -0.08471181243658066, -0.08358214050531387, 0.014048852026462555, -0.09331027418375015, -0.23458890616893768, -0.2573837637901306, -0.1637016236782074, -0.2963455617427826, 0.04711514711380005, -0.2726479172706604, -0.2835295796394348, 0.12196823209524155, -0.31518253684043884, 0.09886784851551056, -0.14627571403980255, 0.2594769597053528, -0.1971481293439865, 0.19096335768699646, 0.060971908271312714, 0.0815172791481018, -0.13559341430664062, 0.04308035969734192, -0.14845000207424164, -0.024907531216740608, -0.231525257229805, 0.0011228834046050906, -0.07373709231615067, 0.32857608795166016, 0.26633554697036743, 0.037146586924791336, 0.030043624341487885, -0.15959876775741577, -0.1651683747768402, -0.13714782893657684, -0.1837255209684372, 0.03871498629450798, -0.2629416882991791, -0.25523245334625244, -0.3206459581851959, 0.12122135609388351, -0.3209802806377411, 0.16330218315124512, -0.2030894011259079, -0.06725822389125824, -0.20164449512958527, -0.28075695037841797, -0.30467596650123596, 0.029085874557495117, -0.14724455773830414, -0.07358161360025406, 0.018901120871305466, 0.3734317719936371, -0.10349246859550476, -0.07545560598373413, -0.1214338019490242, 0.1755121350288391, 0.10671356320381165, -0.17354775965213776, -0.29873916506767273, 0.159458726644516, 0.04220132157206535, -0.1656019389629364, -0.08305969834327698], [-0.14643648266792297, -0.17825376987457275, 0.035898249596357346, 0.1128218024969101, -0.0862390473484993, 0.01539407204836607, -0.05336318537592888, 0.2161140888929367, -0.6942510008811951, -0.1523582488298416, 0.3581821024417877, 0.03793466091156006, 0.10730800032615662, 0.373885840177536, 0.1398448646068573, -0.11495834589004517, -0.3303834795951843, -0.20461469888687134, 0.07486812025308609, 0.14278274774551392, -0.13068300485610962, -0.5856055021286011, -0.13369543850421906, -0.4594108760356903, -0.15056569874286652, -0.10830222070217133, -0.004216965287923813, 0.04178665205836296, -0.4421737790107727, -0.029897058382630348, 0.1363534927368164, -0.007967036217451096, 0.07118948549032211, 0.16872598230838776, -0.106585294008255, -0.5075564980506897, -0.3511835038661957, 0.08088100701570511, 0.20099346339702606, -0.05343164503574371, -0.09583078324794769, 0.17237338423728943, -0.2704559564590454, 0.24049703776836395, -0.034198906272649765, -0.20051653683185577, -0.03272802755236626, -0.2321743667125702, 0.13035549223423004, 0.2189037948846817, 0.2208186686038971, 0.257936030626297, -0.6451533436775208, -0.46569907665252686, 0.05546130985021591, -0.6857139468193054, 0.2815171182155609, -0.04061243683099747, -0.14323793351650238, -0.09595343470573425, 0.028429584577679634, -0.20976324379444122, -1.0761312246322632, -0.20105747878551483, -0.34095272421836853, -0.460470974445343, -0.49328479170799255, -0.05995430424809456, -0.3710583746433258, -0.4130731523036957, 0.2632141709327698, 0.19304510951042175, -0.13487975299358368, -0.04973532259464264, 0.23022772371768951, -0.3132169842720032, -0.2286413013935089, 0.1176636815071106, -0.03446979075670242, 0.22986888885498047], [0.14263145625591278, 0.29170098900794983, 0.22561755776405334, -0.18973186612129211, 0.10640812665224075, -0.028583545237779617, -0.02020992524921894, -0.15096712112426758, -0.057080019265413284, 0.0998903214931488, -0.0100313201546669, -0.10707219690084457, 0.2124166488647461, 0.11520777642726898, -0.20356667041778564, 0.3536035418510437, 0.013118324801325798, -0.08049070090055466, -0.037551626563072205, 0.0009562761406414211, 0.21126516163349152, 0.07373329252004623, 0.017183279618620872, -0.31173861026763916, -0.03934520110487938, 0.057114798575639725, -0.08519808948040009, -0.05392875522375107, 0.05521839112043381, 0.08059398084878922, 0.18092140555381775, 0.13643936812877655, 0.004850728437304497, 0.18166868388652802, 0.02805510349571705, 0.3251090943813324, 0.09162358939647675, -0.11635126173496246, -0.005719996523112059, -0.06151806563138962, 0.0023523508571088314, -0.17261822521686554, 0.023412855342030525, 0.3425178527832031, 0.19516083598136902, -0.056492555886507034, 0.04097999259829521, -0.11047038435935974, 0.031911078840494156, -0.07580611854791641, -0.18405552208423615, -0.3136458992958069, -0.3301580548286438, 0.026776613667607307, -0.21791262924671173, 0.33338937163352966, 0.00022085322416387498, 0.2816125750541687, -0.20413511991500854, 0.03596515953540802, 0.12615062296390533, 0.365796834230423, -0.3589416742324829, -0.3988030254840851, 0.041750725358724594, 0.014016094617545605, -0.10403032600879669, 0.12290388345718384, 0.08427654951810837, -0.23708786070346832, -0.16180521249771118, 0.0840381607413292, 0.3155750036239624, 0.20651692152023315, 0.1594032496213913, -0.33830052614212036, 0.039297062903642654, -0.07065067440271378, 0.023237647488713264, 0.17339646816253662], [0.10309987515211105, -0.1356876641511917, -0.12013344466686249, 0.23351138830184937, -0.0942678451538086, 0.11821738630533218, 0.10570810735225677, 0.04416482523083687, 0.11893823742866516, -0.099002905189991, 0.058003876358270645, 0.12872982025146484, -0.17363522946834564, -0.013728892430663109, 0.35633817315101624, 0.07289941608905792, -0.05943881720304489, -0.09547434002161026, 0.09377328306436539, -0.15729135274887085, 0.07431221008300781, -0.1342538297176361, 0.06471959501504898, 0.1753208041191101, 0.16975687444210052, -0.005209972616285086, -0.276040256023407, 0.03222254291176796, 0.33300867676734924, -0.3284420371055603, 0.0942242443561554, -0.008998924866318703, -0.007116979453712702, 0.16669917106628418, 0.4916462302207947, -0.0031550347339361906, 0.0764843001961708, 0.23357482254505157, -0.1004616916179657, 0.22286805510520935, 0.15483255684375763, -0.07964956015348434, 0.10294269025325775, -0.10682466626167297, 0.1761259138584137, 0.08420383930206299, -0.11253169178962708, -0.09120946377515793, -0.18769840896129608, 0.21516206860542297, -0.021450744941830635, -0.2907412350177765, -0.3286847472190857, -0.16277004778385162, 0.11255326122045517, -0.05898205190896988, -0.19923202693462372, 0.036104507744312286, -0.010736484080553055, -0.06396817415952682, -0.04854479059576988, -0.2125481218099594, -0.08007695525884628, 0.05026213452219963, 0.11713576316833496, 0.37169453501701355, 0.14050529897212982, -0.025224827229976654, 0.20434993505477905, -0.013345908373594284, 0.07733365893363953, -0.105850949883461, -0.031026577576994896, 0.1343085765838623, 0.18539223074913025, 0.062452543526887894, 0.18759648501873016, 0.21773454546928406, -0.005607175640761852, -0.07298366725444794], [0.04879779741168022, -0.043077245354652405, 0.09441296756267548, 0.10891076177358627, -0.27186423540115356, 0.14455480873584747, -0.012699605897068977, 0.22720450162887573, -0.07698940485715866, 0.09433454275131226, -0.1588342934846878, 0.06429586559534073, -0.10626550018787384, 0.3128724694252014, -0.1713864952325821, -0.01567729189991951, 0.04695192724466324, -0.16554133594036102, -0.2548241913318634, 0.14411914348602295, 0.03868674114346504, -0.07978390902280807, 0.18755047023296356, -0.059770163148641586, 0.1330026090145111, 0.2739108204841614, -0.2933357059955597, -0.18685495853424072, 0.1286424696445465, -0.11813457310199738, -0.06377605348825455, -0.02402636408805847, 0.13538241386413574, -0.023012816905975342, 0.12949471175670624, -0.26290568709373474, -0.17991255223751068, -0.12752892076969147, -0.3878190815448761, -0.3045777976512909, 0.06983260065317154, -0.11845789849758148, 0.019822845235466957, 0.0544816255569458, 0.1167018786072731, 0.18684950470924377, 0.08336639404296875, -0.05554267391562462, -0.046612076461315155, -0.10954321175813675, -0.18011286854743958, -0.040313828736543655, 0.05293962359428406, -0.21053120493888855, -0.1295143961906433, -0.16950377821922302, 0.00819324515759945, -0.018678946420550346, -0.2069852650165558, -0.0009780263062566519, -0.1461012214422226, -0.18709558248519897, -0.3074975907802582, -0.2832675874233246, 0.03714027628302574, 0.015403799712657928, -0.3406014144420624, -0.3435074985027313, 0.18164943158626556, -0.0976109579205513, -0.11997245252132416, -0.5055065751075745, -0.05799176171422005, -0.10479826480150223, 0.040130067616701126, -0.11302687972784042, 0.06009240448474884, -0.08048748970031738, -0.01723926141858101, -0.06502693891525269], [0.008887984789907932, -0.04913494735956192, 0.34875062108039856, 0.04757228493690491, -0.329951673746109, 0.0644310712814331, 0.2086525559425354, -0.1570652276277542, -0.10671007633209229, -0.020018737763166428, -0.09050686657428741, -0.010434833355247974, -0.19849804043769836, 0.09782372415065765, -0.5268313884735107, 0.0859244093298912, -0.09808239340782166, -0.09417247027158737, -0.04285290092229843, 0.04093817621469498, -0.28644517064094543, 0.08056715130805969, -0.2279043197631836, -0.010612298734486103, -0.17578007280826569, 0.15663224458694458, -0.018259206786751747, -0.06909133493900299, -0.20110014081001282, -0.186375692486763, -0.17634724080562592, -0.11267032474279404, 0.05996622517704964, -0.13850662112236023, -0.008183102123439312, -0.03305736929178238, 0.0693138912320137, -0.3074813485145569, -0.27338799834251404, -0.04768960177898407, -0.06845231354236603, -0.07016684114933014, 0.12310575693845749, -0.04549786075949669, 0.01826433651149273, -0.05126800015568733, 0.11382724344730377, -0.024243315681815147, 0.17534108459949493, -0.07261205464601517, -0.3516565263271332, 0.09015320241451263, -0.07645828276872635, -0.17076054215431213, 0.08089526742696762, -0.362771213054657, -0.0736439898610115, -0.13272219896316528, 0.11780425161123276, -0.22668811678886414, -0.12671570479869843, -0.09674552083015442, -0.27262604236602783, -0.12433513253927231, -0.22107748687267303, -0.11909732967615128, -0.08674061298370361, -0.19592887163162231, -0.0784197598695755, -0.23600736260414124, 0.2110367715358734, -0.33503279089927673, -0.16441814601421356, -0.11566828936338425, -0.08516331017017365, -0.08055081963539124, -0.17539158463478088, -0.07833283394575119, -0.16778618097305298, -0.3407563865184784], [-0.10005787014961243, -0.18932633101940155, -0.07503724843263626, 0.037696268409490585, -0.20026439428329468, -0.1376907080411911, -0.08349847048521042, -0.3530625104904175, 0.08160330355167389, 0.057680487632751465, -0.037101712077856064, -0.07153791934251785, -0.06066039949655533, -0.10433799773454666, -0.19739049673080444, 0.05628038942813873, 8.759420597925782e-05, -0.04366857931017876, -0.11425889283418655, -0.03233565762639046, -0.1821938157081604, -0.27495336532592773, 0.002633049851283431, -0.10045556724071503, -0.22721180319786072, -0.040556345134973526, 0.014523295685648918, -0.2174728512763977, -0.04728478193283081, 0.07067964226007462, -0.15306398272514343, -0.22200292348861694, -0.11085203289985657, 0.08796791732311249, -0.5030311346054077, 0.026860252022743225, 0.01086384803056717, -0.26818931102752686, -0.11227576434612274, -0.012389937415719032, 0.010268091224133968, 0.10622352361679077, -0.12452732771635056, 0.11252084374427795, -0.2962016463279724, -0.16410571336746216, 0.07943158596754074, -0.08607622236013412, 0.03990926966071129, -0.11596126854419708, -0.17212964594364166, -0.058158986270427704, 0.14918120205402374, 0.060310810804367065, 0.2502417266368866, 0.057368066161870956, 0.16836649179458618, -0.1217038556933403, 0.19470493495464325, 0.1249295026063919, -0.3806121349334717, -0.2097635120153427, -0.11237814277410507, -0.060424886643886566, 0.03899427875876427, -0.41067153215408325, -0.20369577407836914, -0.38611456751823425, -0.0922289714217186, -0.11383533477783203, 0.023463204503059387, -0.1602976769208908, -0.05482375621795654, 0.031149491667747498, -0.33952149748802185, -0.4091528356075287, -0.12704458832740784, -0.3826099634170532, -0.47209659218788147, -0.11864843964576721], [-0.2850475609302521, -0.17768800258636475, 0.01682436838746071, 0.0441446378827095, 0.31098076701164246, -0.07781223952770233, -0.21613815426826477, -0.4328269362449646, -0.0025917496532201767, 0.19924341142177582, -0.002143311081454158, -0.3056498169898987, 0.2076886147260666, 0.05983263626694679, -0.3079493045806885, -0.19604361057281494, 0.01561411377042532, -0.32983076572418213, 0.0447634682059288, 0.1408541053533554, -0.02904045581817627, -0.0974714607000351, -0.015914788469672203, -0.05751470476388931, -0.16703283786773682, -0.04083947464823723, 0.08661467581987381, -0.05930839851498604, -0.011911913752555847, 0.12179113179445267, 0.012630423530936241, 0.148195281624794, -0.1646556258201599, -0.05303984135389328, 0.03431462496519089, 0.11540693789720535, 0.012997403740882874, 0.002595393219962716, 0.14763809740543365, -0.0004856279701925814, -0.025763362646102905, -0.02605541981756687, -0.07864424586296082, -0.1267014443874359, 0.028363285586237907, -0.23115193843841553, 0.06287418305873871, 0.18121083080768585, 0.3847792148590088, 0.22423388063907623, -0.08463313430547714, 0.2543957531452179, 0.08421487361192703, 0.2822226881980896, 0.15834978222846985, 0.043177783489227295, 0.4250905513763428, -0.10294888913631439, 0.18990997970104218, -0.05869201570749283, 0.01490282453596592, -0.08781392872333527, -0.01850338838994503, -0.050770968198776245, 0.03888398036360741, -0.2623535692691803, 0.012889005243778229, 0.18071725964546204, -0.3492890000343323, 0.16888071596622467, 0.0681631788611412, 0.15342725813388824, 0.16100718080997467, 0.26505380868911743, -0.29307299852371216, 0.03917927294969559, -0.17578114569187164, -0.3031887412071228, 0.07021989673376083, -0.07471644878387451], [-0.16603434085845947, 0.2606019675731659, 0.029489513486623764, 0.09840596467256546, 0.1911008507013321, -0.17182844877243042, -0.18834318220615387, -0.17763663828372955, -0.024248480796813965, 0.3964247703552246, 0.08591479808092117, -0.45742085576057434, 0.1644384115934372, -0.20568031072616577, -0.057911500334739685, -0.21952830255031586, -0.07302042841911316, 0.13672535121440887, 0.3359921872615814, 0.24754472076892853, 0.009780101478099823, -0.09753376990556717, 0.038084808737039566, 0.2569468915462494, -0.07343592494726181, -0.16492412984371185, 0.20338454842567444, 0.34324032068252563, 0.2113524228334427, 0.21832385659217834, 0.2197050154209137, 0.03343905135989189, -0.05043775215744972, -0.1011495590209961, -0.016086455434560776, -0.25795087218284607, -0.10617080330848694, 0.024342969059944153, 0.09992393106222153, -0.08530698716640472, -0.04533492401242256, 0.06368569284677505, -0.1628415882587433, 0.10872352868318558, -0.35576897859573364, -0.05927635729312897, -0.08054108172655106, -0.12132758647203445, -0.15365594625473022, -0.08200880885124207, 0.08141199499368668, 0.05880635976791382, -0.11512685567140579, -0.1715942770242691, 0.004571994300931692, 0.11736337095499039, -0.14458665251731873, 0.1178353875875473, -0.1104927659034729, 0.28396448493003845, 0.1796523630619049, -0.05058232694864273, 0.1417590081691742, 0.04458780586719513, 0.10679129511117935, -0.015025141648948193, 0.1506223827600479, 0.04316127300262451, -0.14087988436222076, 0.1484304517507553, 0.16889533400535583, 0.29498806595802307, 0.026931926608085632, -0.11630283296108246, -0.012081149034202099, -0.12604695558547974, -0.08322073519229889, 0.14842694997787476, 0.23887665569782257, 0.2716277539730072], [0.27368563413619995, -0.16473132371902466, 0.16199742257595062, -0.07331902533769608, -0.5302807688713074, 0.06581471860408783, -0.02027215249836445, 0.08731973171234131, -0.26597997546195984, 0.0975111722946167, -0.1324380785226822, -0.0005111915525048971, -0.36072665452957153, 0.001492180279456079, -0.3840574622154236, 0.06529542803764343, -0.16141614317893982, -0.05244981870055199, -0.020679127424955368, 0.04352515935897827, 0.08080050349235535, -0.026613889262080193, -0.11806333810091019, 0.13789579272270203, -0.0011821885127574205, -0.11737614870071411, -0.20962058007717133, 0.05145028978586197, -0.096839040517807, -0.2245507836341858, 0.1909674108028412, 0.32478079199790955, -0.12291698902845383, -0.1323367804288864, 0.04515201970934868, 0.4071694016456604, -0.07791180163621902, -0.13436561822891235, -0.026802537962794304, 0.18494749069213867, -0.028390349820256233, -0.052940577268600464, -0.0765337347984314, 0.2558455765247345, 0.17906691133975983, -0.09408233314752579, -0.005963529460132122, -0.015656739473342896, 0.15977808833122253, 0.31600287556648254, 0.08366959542036057, 0.23520658910274506, 0.1843840479850769, -0.1349203735589981, 0.019104978069663048, -0.16279326379299164, 0.06348103284835815, -0.015264341607689857, 0.009231533855199814, -0.07158148288726807, -0.21597903966903687, -0.0922863781452179, -0.30529770255088806, -0.2214115858078003, 0.0043078092858195305, -0.026018792763352394, 0.007423643488436937, -0.22446702420711517, -0.2566452920436859, -0.2044883519411087, 0.06989928334951401, -0.28554582595825195, -0.38333800435066223, -0.16089510917663574, -0.11418895423412323, 0.03164824843406677, -0.3934352397918701, -0.00041589903412386775, -0.21855424344539642, 0.06386446207761765], [0.08139947801828384, -0.17111113667488098, -0.008532526902854443, 0.05369978025555611, 0.45141223073005676, -0.01142637338489294, 0.031378623098134995, -0.33056509494781494, 0.3071597218513489, 0.23433300852775574, 0.21063241362571716, -0.17435979843139648, -0.20822682976722717, 0.1415223628282547, -0.27540770173072815, -0.23245859146118164, 0.3279617130756378, 0.012369615025818348, 0.10986130684614182, -0.17646412551403046, 0.09932415932416916, 0.14637866616249084, 0.03957480564713478, 0.21594397723674774, -0.08027800917625427, -0.19613055884838104, -0.3389033377170563, -0.1634952872991562, -0.0933319479227066, -0.28919440507888794, -0.1275879591703415, -0.07881557941436768, -0.14845070242881775, 0.14294305443763733, -0.3274587392807007, 0.1200883761048317, -0.12188396602869034, -0.06879008561372757, 0.016250116750597954, -0.10588814318180084, -0.07678472250699997, 0.32321709394454956, -0.13681945204734802, -0.3280004560947418, -0.17912934720516205, -0.2964547276496887, 0.12384990602731705, 0.20379513502120972, -0.03550799936056137, 0.21625088155269623, -0.08450745791196823, 0.02958262525498867, -0.025288237258791924, 0.47452038526535034, -0.12734398245811462, -0.0328928641974926, 0.168399840593338, -0.01448211632668972, 0.21029236912727356, -0.0645342543721199, -0.3223293125629425, -0.27563631534576416, 0.5216328501701355, 0.037129417061805725, -0.3892699182033539, 0.10453429818153381, 0.0789974182844162, -0.015390009619295597, -0.17515398561954498, 0.04695913940668106, 0.052445560693740845, -0.40595534443855286, -0.20279303193092346, 0.14526478946208954, -0.6110067367553711, -0.22693490982055664, -0.18069422245025635, -0.12031928449869156, -0.0027642373461276293, -0.4649955928325653], [-0.026096489280462265, -0.0861402228474617, 0.2153620719909668, -0.13307037949562073, -0.15386347472667694, 0.23797908425331116, 0.16509230434894562, -0.3409528136253357, 0.43254125118255615, 0.22136017680168152, -0.1200365424156189, 0.241386279463768, -0.46857643127441406, 0.20009611546993256, -0.005767306312918663, 0.3438549339771271, 0.0620625875890255, -0.182889923453331, -0.0337950736284256, 0.19020535051822662, 0.08885279297828674, -0.11106561869382858, -0.031543370336294174, 0.2066970020532608, -0.3309488594532013, -0.05942944809794426, -0.021697400137782097, -0.06617076694965363, -0.01576540805399418, 0.019247666001319885, 0.043051935732364655, 0.07093670219182968, -0.08399892598390579, -0.03889252245426178, 0.05799870193004608, -0.18553747236728668, 0.16810210049152374, -0.18510276079177856, -0.23032596707344055, -0.021899636834859848, -0.11037632077932358, -0.21928592026233673, -0.006555577274411917, 0.07761301100254059, -0.1778758317232132, 0.060926541686058044, -0.0011984121520072222, 0.08930402994155884, 0.03821044787764549, 0.04561510309576988, -0.12218035012483597, -0.07690714299678802, 0.033722467720508575, -0.16416122019290924, 0.015506336465477943, -0.14578649401664734, 0.5454066395759583, 0.05608144402503967, 0.15393681824207306, -0.06554297357797623, -0.1261162906885147, -0.488629549741745, 0.32885703444480896, 0.5852254629135132, 0.10784819722175598, -0.17364518344402313, -0.05522393062710762, 0.02814176306128502, -0.03248339146375656, -0.11255507171154022, -0.3734482228755951, -0.22564782202243805, -0.298878014087677, 0.21291445195674896, -0.1797782927751541, 0.20739200711250305, -0.09010076522827148, 0.24966605007648468, -0.017869532108306885, 0.037896234542131424], [-0.14603067934513092, -0.23145334422588348, -0.10243715345859528, 0.03888257220387459, -0.28604936599731445, 0.033114783465862274, -0.1670541614294052, 0.05394389480352402, -0.1919165849685669, -0.09713196009397507, 0.05509927123785019, -0.12099327147006989, -0.029759841039776802, -0.0466962605714798, -0.22456613183021545, 0.04260050132870674, -0.1828269064426422, -0.08169436454772949, -0.05850030854344368, 0.10796279460191727, -0.19747154414653778, -0.06788119673728943, -0.14195850491523743, 0.2643655240535736, -0.1657213717699051, 0.18249540030956268, -0.17630723118782043, 0.11209976673126221, -0.05830801650881767, -0.4012024402618408, 0.03892519697546959, 0.1581672728061676, 0.05810358002781868, 0.24295054376125336, -0.20333577692508698, -0.1235252320766449, -0.11287382990121841, -0.0941103920340538, -0.17134006321430206, -0.05915039777755737, -0.03380488604307175, 0.08145422488451004, 0.0021054537501186132, -0.1515810191631317, 0.15845796465873718, 0.0023246402852237225, -0.09247829765081406, 0.07786110043525696, 0.010594299994409084, 0.20462849736213684, -0.1241188570857048, -0.05350764840841293, 0.30557194352149963, 0.15055328607559204, 0.011374429799616337, -0.2405603975057602, 0.06486599892377853, -0.2283371537923813, 0.24004743993282318, -0.1552652269601822, -0.23075810074806213, -0.18273800611495972, -0.08786477148532867, 0.08429811149835587, 0.06766259670257568, -0.0034398138523101807, -0.042936068028211594, -0.08370281755924225, -0.45913708209991455, -0.17544801533222198, -0.12958167493343353, -0.21619482338428497, -0.5408884286880493, -0.22358283400535583, 0.08081286400556564, -0.031054101884365082, -0.3223581910133362, 0.05108588561415672, -0.36346814036369324, -0.011229454539716244], [0.2764071524143219, -0.22100332379341125, 0.013245668262243271, 0.2005975991487503, 0.34275108575820923, 0.19465553760528564, -0.04702867195010185, 0.16752135753631592, 0.21165737509727478, 0.15070036053657532, 0.022707520052790642, 0.0900128185749054, 0.008714045397937298, -0.09371066093444824, 0.08619652688503265, 0.04656215384602547, 0.25578105449676514, 0.23702067136764526, -0.10452461242675781, 0.27593621611595154, 0.12643033266067505, 0.05396750196814537, 0.08160412311553955, 0.3033566474914551, 0.07347751408815384, 0.1728149950504303, 0.00010993044270435348, 0.04236700013279915, 0.1343136727809906, 0.06218615546822548, -0.14382246136665344, 0.24836578965187073, 0.15496252477169037, -0.033003099262714386, 0.2557840049266815, 0.041142676025629044, 0.10374413430690765, 0.26934805512428284, 0.0009514809935353696, 0.17652514576911926, 0.24714988470077515, -0.18904370069503784, 0.21799662709236145, 0.14003242552280426, -0.4139862358570099, 0.11803323030471802, 0.06549778580665588, -0.008123587816953659, 0.033074475824832916, -0.1293848305940628, -0.31262797117233276, -0.01722981594502926, 0.2191704511642456, 0.07712982594966888, -0.011472990736365318, 0.042821645736694336, 0.2230011224746704, 0.2687264084815979, -0.2809969484806061, -0.15629884600639343, -0.09515581279993057, -0.21279484033584595, 0.4796779155731201, 0.4183677136898041, 0.2555415630340576, 0.18382014334201813, 0.24099095165729523, -0.04466979205608368, 0.3393852114677429, -0.02781963348388672, 0.006444214843213558, 0.254059374332428, -0.020936816930770874, 0.11904427409172058, -0.1490151286125183, -0.06482715904712677, 0.3350018262863159, 0.460613876581192, 0.06113772094249725, 0.0654914528131485], [-0.09479580819606781, 0.06857874989509583, -0.033696044236421585, -0.0224855225533247, 0.2100820094347, -0.1489916890859604, -0.340344101190567, -0.1510123908519745, -0.02298974059522152, 0.16493161022663116, -0.3675978183746338, 0.07140959054231644, -0.13163785636425018, 0.11558284610509872, -0.40094712376594543, 0.20524848997592926, -0.05757831782102585, -0.09747254848480225, -0.07252390682697296, -0.33626893162727356, -0.1191326230764389, -0.2211848497390747, 0.027289094403386116, 0.07734892517328262, -0.1721561849117279, -0.046411577612161636, -0.15483838319778442, 0.03257215768098831, -0.03414507210254669, 0.22106125950813293, -0.12151946127414703, -0.3145315647125244, -0.2487892359495163, -0.16796721518039703, -0.3622186481952667, -0.12686119973659515, 0.10048217326402664, -0.2142956554889679, 0.09591351449489594, -0.10911306738853455, -0.056000445038080215, 0.10190810263156891, 0.049289971590042114, -0.32207614183425903, 0.024180879816412926, -0.017291344702243805, -0.044954750686883926, 0.17510713636875153, 0.13611817359924316, 0.07334588468074799, -0.1808117777109146, 0.1395713835954666, 0.0415385439991951, 0.05297952517867088, 0.015999000519514084, 0.08781635016202927, 0.10564161837100983, -0.13906249403953552, 0.022008489817380905, -0.07931915670633316, -0.3390953540802002, -0.27267059683799744, -0.5850052833557129, 0.13215334713459015, -0.24309125542640686, -0.21162362396717072, -0.20588387548923492, -0.10215969383716583, -0.35399308800697327, 0.07261215895414352, 0.1563165783882141, -0.4134010672569275, -0.14396224915981293, -0.037677403539419174, -0.4654313325881958, -0.4233434498310089, -0.11481887847185135, -0.3824141323566437, -0.22414526343345642, -0.21025420725345612], [-0.010212653316557407, 0.11740850657224655, -0.18996527791023254, 0.34681272506713867, 0.26827967166900635, 0.008284090086817741, 0.14925001561641693, 0.21449913084506989, 0.015738673508167267, -0.20383283495903015, 0.27594396471977234, -0.05289965867996216, 0.004939474631100893, 0.015808014199137688, 0.14179277420043945, -0.5009292364120483, 0.1257852017879486, 0.36532458662986755, 0.01485279481858015, 0.3446251153945923, 0.3477252125740051, 0.08424150198698044, 0.3591926097869873, -0.13866740465164185, 0.008146587759256363, 0.017616717144846916, 0.3876955509185791, 0.3717036545276642, 0.08570180833339691, -0.04866676405072212, 0.208075150847435, 0.08150613307952881, -0.08133876323699951, 0.09873689711093903, 0.2287496030330658, 0.31599828600883484, 0.031147070229053497, 0.30273905396461487, 0.24319538474082947, 0.20186066627502441, 0.15083055198192596, 0.11272883415222168, 0.0760982409119606, -0.18470638990402222, -0.011945434845983982, 0.23789474368095398, -0.1674572378396988, -0.07078468054533005, -0.0703708603978157, 0.07576121389865875, 0.07644948363304138, -0.057534050196409225, 0.03940872102975845, -0.39740920066833496, 0.14177465438842773, -0.49843886494636536, -0.22115015983581543, 0.19245420396327972, 0.10898138582706451, 0.12656269967556, 0.1168595626950264, -0.03182466700673103, 0.40552815794944763, 0.20440667867660522, 0.13780474662780762, 0.3616028428077698, 0.40077489614486694, 0.20998317003250122, 0.22118912637233734, 0.09850490838289261, 0.014162653125822544, 0.26462796330451965, 0.17067627608776093, -0.011578992009162903, 0.28126463294029236, 0.12069955468177795, 0.0020520177204161882, 0.31216302514076233, 0.37623313069343567, 0.2725602388381958], [0.0068273539654910564, -0.25121641159057617, 0.119618721306324, 0.07400026172399521, -0.23005060851573944, -0.010388409718871117, -0.09996846318244934, 0.056343816220760345, -0.12834559381008148, -0.03057624027132988, 0.06285986304283142, 0.13138121366500854, -0.07271850109100342, 0.01664714142680168, -0.0005043470300734043, 0.24652624130249023, -0.190097376704216, -0.21588829159736633, -0.23171879351139069, -0.12615999579429626, -0.0794781893491745, -0.0657411739230156, -0.19995632767677307, 0.15279324352741241, -0.058109138160943985, -0.05886983871459961, -0.07885526865720749, -0.13598793745040894, -0.04885067790746689, 0.015059290453791618, 0.09745123982429504, 0.03189021721482277, 0.12529399991035461, -0.23229734599590302, -0.0916193351149559, 0.04563550651073456, -0.07905849069356918, -0.33274757862091064, -0.24211764335632324, -0.19976668059825897, -0.13793957233428955, -0.051697488874197006, 0.15611600875854492, 0.021247880533337593, 0.07279521226882935, -0.036192916333675385, 0.3319796919822693, 0.005160468630492687, 0.08306726813316345, 0.08326511830091476, -0.23658905923366547, 0.11217131465673447, -0.008167884312570095, 0.1085701659321785, 0.216606006026268, -0.3168697655200958, 0.028695672750473022, -0.05053142085671425, 0.3825252056121826, -0.01704810932278633, -0.16410678625106812, -0.2612592279911041, -0.1377354860305786, -0.22924576699733734, -0.09405653923749924, 0.09782519936561584, -0.329665869474411, -0.21034395694732666, -0.05369194597005844, 0.17710953950881958, 0.0013804184272885323, -0.254865437746048, -0.3736545145511627, -0.08097156882286072, -0.1542147845029831, -0.14812083542346954, -0.5009778141975403, -0.2579071819782257, -0.17335139214992523, -0.1960357278585434], [0.06377513706684113, -0.1215192973613739, -0.06239691376686096, 0.15116241574287415, 0.3406029939651489, 0.02924274280667305, 0.07709804177284241, 0.008554184809327126, 0.22946250438690186, 0.14604726433753967, -0.08525145053863525, 0.1550317406654358, 0.21996180713176727, 0.07530692219734192, 0.20518110692501068, 0.08373735100030899, 0.07550261914730072, 0.20067112147808075, -0.02221233956515789, 0.3792310953140259, 0.2074187695980072, 0.14134205877780914, 0.0448998399078846, -0.3226277530193329, -0.009925402700901031, 0.053957339376211166, 0.015899909660220146, 0.32487601041793823, 0.15453070402145386, 0.1699366718530655, -0.029975295066833496, 0.22732871770858765, 0.126412495970726, 0.026480782777071, 0.037790920585393906, 0.16628672182559967, 0.10073263198137283, 0.31480351090431213, 0.3593088984489441, 0.15077008306980133, 0.021239953115582466, 0.1672627180814743, 0.15888015925884247, -0.027895433828234673, -0.07963745296001434, 0.08176218718290329, -0.16652752459049225, -0.019850917160511017, -0.2478216588497162, -0.02852652035653591, 0.10083942115306854, -0.03603086620569229, -0.16169972717761993, 0.051175303757190704, 0.03376179188489914, -0.009196197614073753, -0.175639346241951, -0.02357824146747589, -0.191616490483284, 0.1855676919221878, 0.2546541392803192, 0.17493842542171478, 0.130564346909523, 0.18545874953269958, 0.35343801975250244, 0.091297447681427, 0.11344052851200104, 0.2524592876434326, 0.07185027748346329, -0.04319967329502106, -0.037351593375205994, 0.10660382360219955, 0.304347962141037, 0.2778088450431824, 0.2414449155330658, -0.026102930307388306, 0.18186746537685394, 0.23595882952213287, 0.15276750922203064, 0.09092117100954056]], [0.09897399693727493, 0.08446341753005981, -0.09642273932695389, 0.041014719754457474, 0.11759141832590103, 0.05631577968597412, 0.0650261864066124, 0.03457667678594589, 0.14001429080963135, 0.0001760991581249982, 0.04735122248530388, 0.0074843913316726685, 0.17996974289417267, -0.07448767870664597, 0.216566801071167, -0.2279891073703766, 0.12038905918598175, 0.18187002837657928, 0.13640929758548737, 0.062417253851890564, 1.1460734605789185, 1.1177029609680176, 1.174534797668457, 1.0038405656814575, 1.1061173677444458, 1.0878604650497437, 1.1613502502441406, 1.169999122619629, 1.092905879020691, 1.1165333986282349, 1.1174473762512207, 1.1569310426712036, 1.0819218158721924, 1.0405484437942505, 1.0653793811798096, 1.0578328371047974, 1.1029348373413086, 1.1570100784301758, 1.167239785194397, 1.0272730588912964, 0.0851312056183815, 0.06422419846057892, 0.06322416663169861, -0.005933251231908798, -0.054493144154548645, 0.06648240238428116, -0.02541622519493103, -0.08410141617059708, -0.06273213773965836, -0.09211542457342148, 0.08888211846351624, -0.08164713531732559, -0.10039699822664261, -0.02508673630654812, -0.04961672052741051, 0.12095075100660324, -0.13805370032787323, 0.10355041921138763, -0.08600560575723648, 0.08021863549947739, 0.20841287076473236, 0.1770600825548172, 0.1789153516292572, 0.08433742821216583, 0.1515379697084427, 0.010860638692975044, 0.14842703938484192, 0.15662789344787598, 0.18876560032367706, 0.10794109106063843, 0.11709479987621307, 0.3761585056781769, 0.28489023447036743, 0.13486096262931824, 0.1291293352842331, 0.07565409690141678, 0.2354733645915985, 0.15304666757583618, 0.15153543651103973, 0.06969396024942398], [[-1.247833013534546, -0.06480901688337326, -0.6305370330810547], [-0.39666056632995605, -0.2025294005870819, 0.3128184676170349], [0.719599187374115, 0.9482411742210388, -0.7735958695411682], [-0.2227800041437149, 0.9547565579414368, -1.0996228456497192], [0.4265201687812805, 0.4497837722301483, -1.096656084060669], [-0.050269633531570435, 0.15522895753383636, 0.11432792991399765], [1.2742735147476196, 0.7420417666435242, 0.17012926936149597], [0.9729742407798767, 0.4471905827522278, 0.3451164960861206], [0.5616304278373718, -0.7175872921943665, 0.2609961926937103], [-0.9999496340751648, -0.5667816996574402, 0.0943961814045906], [-0.36313924193382263, 0.6490727066993713, 0.12863068282604218], [0.6523771286010742, 0.21952617168426514, 0.18884973227977753], [0.33736035227775574, -1.1637681722640991, 0.9340510964393616], [0.15624035894870758, -1.0412856340408325, 0.8430668711662292], [0.38125139474868774, 0.20003049075603485, 0.5343055129051208], [-0.30157583951950073, -0.2684497535228729, 0.9151179790496826], [0.8896019458770752, -0.09468559175729752, 0.6212787628173828], [-0.9495851397514343, -0.06391274929046631, -0.36290210485458374], [1.2250866889953613, -0.33875206112861633, 0.5566595792770386], [-1.100733995437622, 0.12678185105323792, -0.3100670874118805]], [-0.4313165843486786, -0.09337057918310165, -0.3006100654602051]]}